{
  "id": "exp_20250312_085652",
  "timestamp": "20250312_085652",
  "duration_minutes": 1.1007625818252564,
  "description": "",
  "environment": {
    "n_j": 6,
    "n_m": 6,
    "device": "cpu",
    "num_envs": 8,
    "max_updates": 100,
    "feature_set": [
      "LBs",
      "finished_mark",
      "weighted_priorities",
      "normalized_weights",
      "machine_contention",
      "remaining_weighted_work",
      "time_elapsed"
    ],
    "wspt_guidance_enabled": false,
    "wspt_guidance_duration": 0
  },
  "architecture": {
    "num_layers": 3,
    "input_dim": 7,
    "hidden_dim": 64,
    "num_mlp_layers_feature_extract": 2,
    "num_mlp_layers_actor": 2,
    "hidden_dim_actor": 32,
    "num_mlp_layers_critic": 2,
    "hidden_dim_critic": 32
  },
  "training_params": {
    "lr": 2e-05,
    "decayflag": false,
    "decay_step_size": 2000,
    "decay_ratio": 0.9,
    "gamma": 1,
    "k_epochs": 1,
    "eps_clip": 0.2,
    "vloss_coef": 1,
    "ploss_coef": 2,
    "entloss_coef": 0.05,
    "rewardscale": 0.0,
    "init_quality_flag": false
  },
  "results": {
    "duration_minutes": 0.9954360842704773,
    "best_validation_episode": 80,
    "validation_weighted_sum": 14320.16,
    "training_rewards": [
      -14206.625,
      -14067.5,
      -14674.125,
      -15786.75,
      -14497.875,
      -12925.5,
      -11850.75,
      -14856.25,
      -14077.5,
      -13837.0,
      -16745.5,
      -13926.625,
      -12167.25,
      -13872.875,
      -16772.5,
      -13711.0,
      -13705.5,
      -14981.25,
      -16050.0,
      -16479.625,
      -15126.375,
      -13528.125,
      -14727.5,
      -13294.0,
      -14098.125,
      -15209.25,
      -13221.5,
      -12185.5,
      -14797.625,
      -11772.125,
      -14000.25,
      -13584.625,
      -16754.75,
      -12652.75,
      -15084.0,
      -15674.0,
      -14394.25,
      -12558.75,
      -14607.75,
      -16383.75,
      -13844.25,
      -16685.25,
      -14365.0,
      -14652.75,
      -13609.875,
      -12702.875,
      -12736.5,
      -12941.25,
      -16261.375,
      -13768.5,
      -14549.375,
      -13247.75,
      -13715.125,
      -14822.0,
      -14670.25,
      -13344.75,
      -13123.25,
      -15698.75,
      -15408.0,
      -15251.875,
      -14524.75,
      -14416.5,
      -17577.75,
      -12298.375,
      -13985.75,
      -12631.25,
      -14549.625,
      -13466.625,
      -14947.125,
      -16736.25,
      -13108.25,
      -15667.75,
      -15122.625,
      -13878.125,
      -12494.125,
      -15407.75,
      -13787.0,
      -14960.125,
      -16250.875,
      -14168.125,
      -16067.75,
      -15671.75,
      -15652.25,
      -16291.875,
      -14052.25,
      -15570.125,
      -14263.5,
      -15946.0,
      -17123.375,
      -13250.25,
      -16831.25,
      -14195.625,
      -13880.375,
      -15304.0,
      -13849.625,
      -10901.375,
      -14713.75,
      -14410.625,
      -16119.75,
      -16382.5
    ],
    "training_weighted_sums": [
      14206.625,
      14067.5,
      14674.125,
      15786.75,
      14497.875,
      12925.5,
      11850.75,
      14856.25,
      14077.5,
      13837.0,
      16745.5,
      13926.625,
      12167.25,
      13872.875,
      16772.5,
      13711.0,
      13705.5,
      14981.25,
      16050.0,
      16479.625,
      15126.375,
      13528.125,
      14727.5,
      13294.0,
      14098.125,
      15209.25,
      13221.5,
      12185.5,
      14797.625,
      11772.125,
      14000.25,
      13584.625,
      16754.75,
      12652.75,
      15084.0,
      15674.0,
      14394.25,
      12558.75,
      14607.75,
      16383.75,
      13844.25,
      16685.25,
      14365.0,
      14652.75,
      13609.875,
      12702.875,
      12736.5,
      12941.25,
      16261.375,
      13768.5,
      14549.375,
      13247.75,
      13715.125,
      14822.0,
      14670.25,
      13344.75,
      13123.25,
      15698.75,
      15408.0,
      15251.875,
      14524.75,
      14416.5,
      17577.75,
      12298.375,
      13985.75,
      12631.25,
      14549.625,
      13466.625,
      14947.125,
      16736.25,
      13108.25,
      15667.75,
      15122.625,
      13878.125,
      12494.125,
      15407.75,
      13787.0,
      14960.125,
      16250.875,
      14168.125,
      16067.75,
      15671.75,
      15652.25,
      16291.875,
      14052.25,
      15570.125,
      14263.5,
      15946.0,
      17123.375,
      13250.25,
      16831.25,
      14195.625,
      13880.375,
      15304.0,
      13849.625,
      10901.375,
      14713.75,
      14410.625,
      16119.75,
      16382.5
    ],
    "losses": [
      6.172807693481445,
      6.193388938903809,
      5.770761489868164,
      6.003054141998291,
      5.856488227844238,
      5.956643581390381,
      5.673465251922607,
      5.716823577880859,
      5.708597660064697,
      5.63890266418457,
      5.672055244445801,
      5.519711494445801,
      5.442940711975098,
      5.512210369110107,
      5.630526542663574,
      5.370072364807129,
      5.34769344329834,
      5.178078651428223,
      5.319296836853027,
      5.185276031494141,
      5.183786392211914,
      5.133545398712158,
      4.909309387207031,
      4.9175848960876465,
      4.940271854400635,
      4.943847179412842,
      4.830984115600586,
      4.685874938964844,
      4.8938469886779785,
      4.693719387054443,
      4.69428825378418,
      4.669844150543213,
      4.720099925994873,
      4.576671123504639,
      4.548030376434326,
      4.331094741821289,
      4.374380111694336,
      4.409772872924805,
      4.356897830963135,
      4.310782432556152,
      4.029683589935303,
      4.209142684936523,
      4.139188289642334,
      4.278480529785156,
      4.192507743835449,
      4.131429672241211,
      4.115279197692871,
      4.111613750457764,
      4.094943046569824,
      3.988715410232544,
      4.100469589233398,
      3.845167636871338,
      3.997629165649414,
      3.8419463634490967,
      3.704835891723633,
      3.844442367553711,
      3.8287055492401123,
      3.7494544982910156,
      3.6351683139801025,
      3.6083145141601562,
      3.5855562686920166,
      3.5899040699005127,
      3.513650417327881,
      3.368424654006958,
      3.3793816566467285,
      3.356985330581665,
      3.495049238204956,
      3.4880001544952393,
      3.3797712326049805,
      3.504251480102539,
      3.142521858215332,
      3.352189064025879,
      3.136472463607788,
      3.2475662231445312,
      3.1994788646698,
      3.0181984901428223,
      3.1574435234069824,
      3.094517946243286,
      3.154783010482788,
      3.0402586460113525,
      3.0391392707824707,
      2.7367305755615234,
      3.133129358291626,
      2.844714403152466,
      2.910634994506836,
      2.7996063232421875,
      2.7591583728790283,
      2.5033106803894043,
      2.6919662952423096,
      2.873993158340454,
      2.6555066108703613,
      2.7633681297302246,
      2.7252018451690674,
      2.4974637031555176,
      2.558098793029785,
      2.718726873397827,
      2.6682236194610596,
      2.632341146469116,
      2.634406805038452,
      2.482004404067993
    ],
    "validation_history": [
      14362.06,
      14493.89,
      14549.22,
      14532.96,
      14416.98,
      14328.06,
      14363.11,
      14320.16,
      14414.83,
      14447.89
    ],
    "win_rate": 0.0,
    "win_vs_spt": 0.0,
    "win_vs_wspt": 0.0,
    "avg_weighted_sum": 14263.0,
    "improvement_over_spt": -7.480614605547732,
    "improvement_over_wspt": -15.78614105728017,
    "training_completed": true,
    "test_win_rate": 4.0,
    "test_win_vs_spt": 40.0,
    "test_win_vs_srpt": 17.391304347826086,
    "test_win_vs_wspt": 5.333333333333334,
    "test_avg_weighted_sum": 14142.82,
    "test_improvement_over_spt": -3.8445667226170106,
    "test_improvement_over_srpt": -7.702957509222226,
    "test_improvement_over_wspt": -15.971713136302734,
    "testing_completed": true
  },
  "config_hash": "7ea385e6",
  "is_duplicate": false
}